<?xml version="1.0"?>
<opencv_storage>
<cascade>
  <stageType>BOOST</stageType>
  <featureType>LBP</featureType>
  <height>80</height>
  <width>30</width>
  <stageParams>
    <boostType>GAB</boostType>
    <minHitRate>9.9500000476837158e-001</minHitRate>
    <maxFalseAlarm>1.0000000149011612e-001</maxFalseAlarm>
    <weightTrimRate>9.4999999999999996e-001</weightTrimRate>
    <maxDepth>1</maxDepth>
    <maxWeakCount>100</maxWeakCount></stageParams>
  <featureParams>
    <maxCatCount>256</maxCatCount>
    <featSize>1</featSize></featureParams>
  <stageNum>11</stageNum>
  <stages>
    <!-- stage 0 -->
    <_>
      <maxWeakCount>2</maxWeakCount>
      <stageThreshold>-1.2925159931182861e-001</stageThreshold>
      <weakClassifiers>
        <_>
          <internalNodes>
            0 -1 14 -582224929 1073954816 2 1107378307 98435 65536
            -2113765373 1900800203</internalNodes>
          <leafValues>
            -9.9022799730300903e-001 8.6713284254074097e-001</leafValues></_>
        <_>
          <internalNodes>
            0 -1 9 -136445953 1531166977 -1879044983 -779630501
            1375905963 245762 -796155701 2013263599</internalNodes>
          <leafValues>
            -9.5635420083999634e-001 8.6097639799118042e-001</leafValues></_></weakClassifiers></_>
    <!-- stage 1 -->
    <_>
      <maxWeakCount>4</maxWeakCount>
      <stageThreshold>-2.2781546413898468e-001</stageThreshold>
      <weakClassifiers>
        <_>
          <internalNodes>
            0 -1 4 -674245665 1910476951 -1069309173 -1055919553
            -502625585 269615107 -779248865 1945108463</internalNodes>
          <leafValues>
            -9.4576269388198853e-001 6.3870966434478760e-001</leafValues></_>
        <_>
          <internalNodes>
            0 -1 18 -707267033 1565900803 1073808134 -804806397
            -1073528301 1242564609 -104783577 -137888977</internalNodes>
          <leafValues>
            -8.7700557708740234e-001 7.4369120597839355e-001</leafValues></_>
        <_>
          <internalNodes>
            0 -1 3 -774638841 1493524499 231443 -792346619 270612480
            579043971 1075920903 -144705697</internalNodes>
          <leafValues>
            -8.0394768714904785e-001 7.9300659894943237e-001</leafValues></_>
        <_>
          <internalNodes>
            0 -1 43 -1000872961 38027474 285245442 37931394 1125367947
            147592 -788283133 -486541381</internalNodes>
          <leafValues>
            -7.8252619504928589e-001 8.5489547252655029e-001</leafValues></_></weakClassifiers></_>
    <!-- stage 2 -->
    <_>
      <maxWeakCount>4</maxWeakCount>
      <stageThreshold>-3.6936318874359131e-001</stageThreshold>
      <weakClassifiers>
        <_>
          <internalNodes>
            0 -1 8 -741347361 -1860976090 1073823771 462151699
            -341059429 52970898 -905863029 -69475685</internalNodes>
          <leafValues>
            -7.8593271970748901e-001 6.2601625919342041e-001</leafValues></_>
        <_>
          <internalNodes>
            0 -1 29 -238026753 -708722486 276879761 -20905893 1346537691
            -1156738678 -2076079809 1879569043</internalNodes>
          <leafValues>
            -7.9082638025283813e-001 6.2675923109054565e-001</leafValues></_>
        <_>
          <internalNodes>
            0 -1 1 -238291969 -1694358523 16859395 286593289 -938604402
            -1065170938 33786059 1418722203</internalNodes>
          <leafValues>
            -7.9579144716262817e-001 6.4145529270172119e-001</leafValues></_>
        <_>
          <internalNodes>
            0 -1 19 -783814250 1399926791 268469340 1577099913
            -1039482725 160071840 1141823407 2077227151</internalNodes>
          <leafValues>
            -8.3158773183822632e-001 5.8560174703598022e-001</leafValues></_></weakClassifiers></_>
    <!-- stage 3 -->
    <_>
      <maxWeakCount>5</maxWeakCount>
      <stageThreshold>-2.9761018231511116e-002</stageThreshold>
      <weakClassifiers>
        <_>
          <internalNodes>
            0 -1 11 -1041247745 -15482750 1375764759 -707591782
            -936655926 -1702747958 -1064776565 -79105908</internalNodes>
          <leafValues>
            -7.5155282020568848e-001 4.8437500000000000e-001</leafValues></_>
        <_>
          <internalNodes>
            0 -1 5 -74745035 -750173951 83353 -788414405 -334859726
            168446211 -792439457 -15992065</internalNodes>
          <leafValues>
            -7.9874694347381592e-001 5.3378027677536011e-001</leafValues></_>
        <_>
          <internalNodes>
            0 -1 22 -504371369 -620638013 151191667 -753696455
            -652408337 -1417019261 -1597020157 1685520449</internalNodes>
          <leafValues>
            -8.2409197092056274e-001 4.9641853570938110e-001</leafValues></_>
        <_>
          <internalNodes>
            0 -1 2 1594976117 1595097233 1074925897 -788424687
            -1047853841 -931004279 1210257619 1536129659</internalNodes>
          <leafValues>
            -7.7470266819000244e-001 5.1577806472778320e-001</leafValues></_>
        <_>
          <internalNodes>
            0 -1 38 1398262271 63377729 285294673 554422274 -1601666850
            1216430217 -2113929026 2079308027</internalNodes>
          <leafValues>
            -7.2758567333221436e-001 6.0851544141769409e-001</leafValues></_></weakClassifiers></_>
    <!-- stage 4 -->
    <_>
      <maxWeakCount>7</maxWeakCount>
      <stageThreshold>-2.4743030965328217e-001</stageThreshold>
      <weakClassifiers>
        <_>
          <internalNodes>
            0 -1 24 -800267273 -1728001917 273940811 -74344191 269607076
            1489021064 -1065252368 -68170853</internalNodes>
          <leafValues>
            -8.0412369966506958e-001 3.3962264657020569e-001</leafValues></_>
        <_>
          <internalNodes>
            0 -1 7 -193856569 -685901552 -1608511467 -418704687
            1615245998 906597706 -1641963389 -608183301</internalNodes>
          <leafValues>
            -6.6900479793548584e-001 5.3469461202621460e-001</leafValues></_>
        <_>
          <internalNodes>
            0 -1 41 -552103218 212265758 286349332 67682311 268968184
            -787971832 -777948791 -874777685</internalNodes>
          <leafValues>
            -8.2259541749954224e-001 4.5170682668685913e-001</leafValues></_>
        <_>
          <internalNodes>
            0 -1 49 -935011847 -619462269 249907 84494867 -668802017
            -1601683327 -788287269 247983007</internalNodes>
          <leafValues>
            -7.1107882261276245e-001 5.4332619905471802e-001</leafValues></_>
        <_>
          <internalNodes>
            0 -1 45 1108560477 1393182979 1360298266 -1299967254
            537403529 -1809121149 -1870023973 -129273551</internalNodes>
          <leafValues>
            -6.8808585405349731e-001 6.2299525737762451e-001</leafValues></_>
        <_>
          <internalNodes>
            0 -1 17 -120589834 1560281115 286261400 -746487280
            -1156877844 438896769 -1558052692 2003654803</internalNodes>
          <leafValues>
            -7.8065139055252075e-001 5.5161744356155396e-001</leafValues></_>
        <_>
          <internalNodes>
            0 -1 53 -832764937 1913360408 1476510033 -1878761196 1042058
            -889134973 -499988136 -225916504</internalNodes>
          <leafValues>
            -7.1970033645629883e-001 6.2625885009765625e-001</leafValues></_></weakClassifiers></_>
    <!-- stage 5 -->
    <_>
      <maxWeakCount>7</maxWeakCount>
      <stageThreshold>-3.3719560503959656e-001</stageThreshold>
      <weakClassifiers>
        <_>
          <internalNodes>
            0 -1 15 -796143373 -1660909525 1073908027 1362989326
            -609508885 -1953920886 -1589526347 -169635369</internalNodes>
          <leafValues>
            -7.7364861965179443e-001 3.1818181276321411e-001</leafValues></_>
        <_>
          <internalNodes>
            0 -1 12 -142083117 -1832665085 17826256 -1526644679
            -1714900053 1200785923 -1609858897 -1077171285</internalNodes>
          <leafValues>
            -6.2325197458267212e-001 5.4386395215988159e-001</leafValues></_>
        <_>
          <internalNodes>
            0 -1 37 1344070143 1570038946 134283794 1569227264
            1220595870 1217448961 -335422784 -606737952</internalNodes>
          <leafValues>
            -7.1798199415206909e-001 4.9889722466468811e-001</leafValues></_>
        <_>
          <internalNodes>
            0 -1 34 -78921046 2009187028 840122528 -988658153 681181336
            1107820682 -1341865739 -790633521</internalNodes>
          <leafValues>
            -7.0731961727142334e-001 5.1679241657257080e-001</leafValues></_>
        <_>
          <internalNodes>
            0 -1 20 2114167029 312389892 190481 2063695952 1342380559
            864763922 -938753591 1805620394</internalNodes>
          <leafValues>
            -9.0892481803894043e-001 4.1675946116447449e-001</leafValues></_>
        <_>
          <internalNodes>
            0 -1 16 -617055657 403249288 1627455891 -2143289264
            151249291 -1700626429 -1325256531 -77545260</internalNodes>
          <leafValues>
            -7.1685081720352173e-001 5.4516714811325073e-001</leafValues></_>
        <_>
          <internalNodes>
            0 -1 42 8832991 318816405 1086345245 281288722 134849177
            -2013167462 6841 1375912256</internalNodes>
          <leafValues>
            -7.6497125625610352e-001 5.2615159749984741e-001</leafValues></_></weakClassifiers></_>
    <!-- stage 6 -->
    <_>
      <maxWeakCount>6</maxWeakCount>
      <stageThreshold>1.1961722373962402e-001</stageThreshold>
      <weakClassifiers>
        <_>
          <internalNodes>
            0 -1 10 -746063365 1371635777 285 1368473600 -2013035987
            151750793 1359184672 -3153237</internalNodes>
          <leafValues>
            -7.3743921518325806e-001 3.3568903803825378e-001</leafValues></_>
        <_>
          <internalNodes>
            0 -1 40 -375930230 -419364838 -1602222976 34930706
            -2087943650 -2061982528 -1073243686 -1746743149</internalNodes>
          <leafValues>
            -7.6732414960861206e-001 4.4779193401336670e-001</leafValues></_>
        <_>
          <internalNodes>
            0 -1 0 1528015843 -318631919 17318229 1800094081 -1065319621
            -6684670 -939496790 1367982287</internalNodes>
          <leafValues>
            -7.7076935768127441e-001 4.5217454433441162e-001</leafValues></_>
        <_>
          <internalNodes>
            0 -1 25 -1055393963 -1693416432 285414617 -132169279
            -511094347 -1868890112 1384749281 1373473984</internalNodes>
          <leafValues>
            -7.3776799440383911e-001 4.9631214141845703e-001</leafValues></_>
        <_>
          <internalNodes>
            0 -1 51 -2078587170 1359020036 1049750 33853700 -1056403303
            -1744732159 -931102533 1653592714</internalNodes>
          <leafValues>
            -8.1711381673812866e-001 4.8731988668441772e-001</leafValues></_>
        <_>
          <internalNodes>
            0 -1 54 -782737716 1359134976 1090732049 318799944 855703950
            -2003304448 -1442772837 -569845348</internalNodes>
          <leafValues>
            -7.9523658752441406e-001 4.9983969330787659e-001</leafValues></_></weakClassifiers></_>
    <!-- stage 7 -->
    <_>
      <maxWeakCount>6</maxWeakCount>
      <stageThreshold>-1.0652505606412888e-001</stageThreshold>
      <weakClassifiers>
        <_>
          <internalNodes>
            0 -1 30 -6291461 -11141137 -54530445 -1704198225 -578835974
            1340596078 -827850789 -732436577</internalNodes>
          <leafValues>
            -6.1578947305679321e-001 7.7142858505249023e-001</leafValues></_>
        <_>
          <internalNodes>
            0 -1 21 -636037155 1343225872 -2139041643 1493401602
            -2004721104 687875200 956911856 -609238117</internalNodes>
          <leafValues>
            -6.0685455799102783e-001 5.8060777187347412e-001</leafValues></_>
        <_>
          <internalNodes>
            0 -1 33 2101289963 1073184758 2147450676 -8573122 -8503393
            -4867202 -1073752067 -134676516</internalNodes>
          <leafValues>
            -5.8561331033706665e-001 6.8494367599487305e-001</leafValues></_>
        <_>
          <internalNodes>
            0 -1 13 -1181301773 2024275968 -2147466996 -587169663
            1174552729 1787429008 -937344832 -399448190</internalNodes>
          <leafValues>
            -7.0220291614532471e-001 5.9694302082061768e-001</leafValues></_>
        <_>
          <internalNodes>
            0 -1 55 -783609638 1117323777 17829970 1073868867 737449
            168308736 -1073557286 -301219449</internalNodes>
          <leafValues>
            -6.1960405111312866e-001 6.5061467885971069e-001</leafValues></_>
        <_>
          <internalNodes>
            0 -1 35 1761641687 -1727987647 268435840 1476460569 527004
            -402586944 8388744 -1060919158</internalNodes>
          <leafValues>
            -7.0469874143600464e-001 6.3173371553421021e-001</leafValues></_></weakClassifiers></_>
    <!-- stage 8 -->
    <_>
      <maxWeakCount>7</maxWeakCount>
      <stageThreshold>-7.8748874366283417e-002</stageThreshold>
      <weakClassifiers>
        <_>
          <internalNodes>
            0 -1 23 861127135 168002067 1208025088 -805298176
            -1526103671 -2013200246 -2147382388 -7650677</internalNodes>
          <leafValues>
            -6.7714285850524902e-001 5.6999999284744263e-001</leafValues></_>
        <_>
          <internalNodes>
            0 -1 58 -801058574 822678669 268980337 1347424257
            -2128576372 -1409286144 -1040176755 976880011</internalNodes>
          <leafValues>
            -7.0570594072341919e-001 4.9564245343208313e-001</leafValues></_>
        <_>
          <internalNodes>
            0 -1 48 -2079582798 -218103804 1342181393 1238745360
            1076232842 1627455617 297861256 207480607</internalNodes>
          <leafValues>
            -7.9161620140075684e-001 4.7295409440994263e-001</leafValues></_>
        <_>
          <internalNodes>
            0 -1 26 -670639993 1761608832 268505110 1096943104
            -536049649 1094811842 8396869 271288714</internalNodes>
          <leafValues>
            -7.3785179853439331e-001 5.6118792295455933e-001</leafValues></_>
        <_>
          <internalNodes>
            0 -1 27 1091551698 -2147333607 -2130178024 1392578882
            -1610563574 176291848 67844101 1393230115</internalNodes>
          <leafValues>
            -8.0645900964736938e-001 5.1649969816207886e-001</leafValues></_>
        <_>
          <internalNodes>
            0 -1 60 1410519180 -788070144 278397073 1359036581 50888842
            1275789312 940081290 455708170</internalNodes>
          <leafValues>
            -7.6666843891143799e-001 5.5838924646377563e-001</leafValues></_>
        <_>
          <internalNodes>
            0 -1 36 1604108271 1056767983 -270663681 -42074114 -16842946
            1189903866 -167903235 -934940677</internalNodes>
          <leafValues>
            -6.2932485342025757e-001 7.0390480756759644e-001</leafValues></_></weakClassifiers></_>
    <!-- stage 9 -->
    <_>
      <maxWeakCount>6</maxWeakCount>
      <stageThreshold>-5.4915475845336914e-001</stageThreshold>
      <weakClassifiers>
        <_>
          <internalNodes>
            0 -1 57 -19021605 -2391 -1424721025 466956297 -560161045
            -646021156 191726329 -542375970</internalNodes>
          <leafValues>
            -6.4054054021835327e-001 7.1249997615814209e-001</leafValues></_>
        <_>
          <internalNodes>
            0 -1 47 -518797858 67279512 553992218 33706130 33704201
            1610809344 445186433 433840363</internalNodes>
          <leafValues>
            -7.9498374462127686e-001 4.3584045767784119e-001</leafValues></_>
        <_>
          <internalNodes>
            0 -1 31 -95169929 -1065287278 -1874751278 -1870594048
            -1962835927 42074113 983259 1661987279</internalNodes>
          <leafValues>
            -6.4174050092697144e-001 6.0878717899322510e-001</leafValues></_>
        <_>
          <internalNodes>
            0 -1 28 -1055139602 453067153 16827864 1073750159 285868170
            1208483842 4853830 331866703</internalNodes>
          <leafValues>
            -7.6738119125366211e-001 5.2524638175964355e-001</leafValues></_>
        <_>
          <internalNodes>
            0 -1 46 1091781017 -536701940 1342259749 152354840 116744
            1023934466 147466 1804333194</internalNodes>
          <leafValues>
            -7.4359637498855591e-001 5.3921288251876831e-001</leafValues></_>
        <_>
          <internalNodes>
            0 -1 6 285280190 1358987413 -1878999023 1090535426
            1216905384 -1475852288 168323468 -159059728</internalNodes>
          <leafValues>
            -7.6717334985733032e-001 5.4875016212463379e-001</leafValues></_></weakClassifiers></_>
    <!-- stage 10 -->
    <_>
      <maxWeakCount>7</maxWeakCount>
      <stageThreshold>-6.7414784431457520e-001</stageThreshold>
      <weakClassifiers>
        <_>
          <internalNodes>
            0 -1 32 -632850189 1408904956 32570611 -69201405 1996357118
            -42688578 -1791557649 -581983537</internalNodes>
          <leafValues>
            -6.3052207231521606e-001 7.2549021244049072e-001</leafValues></_>
        <_>
          <internalNodes>
            0 -1 44 -207361445 -1035501141 286277873 855654491
            1485471768 16990224 1610910337 1076281883</internalNodes>
          <leafValues>
            -6.6949421167373657e-001 5.3680950403213501e-001</leafValues></_>
        <_>
          <internalNodes>
            0 -1 50 1861178359 -536871041 -16777473 -92340244 -16835138
            -1124073601 -58720260 -1665208328</internalNodes>
          <leafValues>
            -6.0009086132049561e-001 6.6240280866622925e-001</leafValues></_>
        <_>
          <internalNodes>
            0 -1 59 -1056886632 -717012924 118975 2069055490 -931082039
            -1405091840 -1064205654 -147191670</internalNodes>
          <leafValues>
            -5.8953088521957397e-001 7.1852207183837891e-001</leafValues></_>
        <_>
          <internalNodes>
            0 -1 39 -285351262 -1342193729 1862169320 -1183416585
            -1073743880 1442807807 1862139897 -68159489</internalNodes>
          <leafValues>
            -5.8852416276931763e-001 7.2520428895950317e-001</leafValues></_>
        <_>
          <internalNodes>
            0 -1 56 -1018126182 -50266096 1342263441 -32439807
            -267746678 940572680 545890497 655432079</internalNodes>
          <leafValues>
            -7.0631891489028931e-001 6.6077566146850586e-001</leafValues></_>
        <_>
          <internalNodes>
            0 -1 52 -850255783 1914077241 1379991574 -1308036784
            -1610612064 -905279487 1074491602 -1328588654</internalNodes>
          <leafValues>
            -8.1714767217636108e-001 5.3978663682937622e-001</leafValues></_></weakClassifiers></_></stages>
  <features>
    <_>
      <rect>
        0 0 10 4</rect></_>
    <_>
      <rect>
        0 3 10 10</rect></_>
    <_>
      <rect>
        0 6 3 18</rect></_>
    <_>
      <rect>
        0 12 5 18</rect></_>
    <_>
      <rect>
        0 12 10 12</rect></_>
    <_>
      <rect>
        0 16 4 17</rect></_>
    <_>
      <rect>
        0 37 2 9</rect></_>
    <_>
      <rect>
        0 41 9 13</rect></_>
    <_>
      <rect>
        0 41 10 13</rect></_>
    <_>
      <rect>
        0 43 10 7</rect></_>
    <_>
      <rect>
        0 51 6 7</rect></_>
    <_>
      <rect>
        0 65 1 5</rect></_>
    <_>
      <rect>
        0 65 10 5</rect></_>
    <_>
      <rect>
        0 67 2 4</rect></_>
    <_>
      <rect>
        1 2 9 25</rect></_>
    <_>
      <rect>
        1 8 5 6</rect></_>
    <_>
      <rect>
        1 55 2 8</rect></_>
    <_>
      <rect>
        1 71 5 3</rect></_>
    <_>
      <rect>
        2 35 4 6</rect></_>
    <_>
      <rect>
        2 64 9 5</rect></_>
    <_>
      <rect>
        3 0 8 26</rect></_>
    <_>
      <rect>
        3 64 4 5</rect></_>
    <_>
      <rect>
        5 0 5 3</rect></_>
    <_>
      <rect>
        5 2 4 7</rect></_>
    <_>
      <rect>
        5 5 5 4</rect></_>
    <_>
      <rect>
        5 12 2 3</rect></_>
    <_>
      <rect>
        5 19 3 6</rect></_>
    <_>
      <rect>
        5 55 4 4</rect></_>
    <_>
      <rect>
        6 25 1 2</rect></_>
    <_>
      <rect>
        7 0 5 2</rect></_>
    <_>
      <rect>
        7 20 1 2</rect></_>
    <_>
      <rect>
        7 51 3 9</rect></_>
    <_>
      <rect>
        7 71 1 1</rect></_>
    <_>
      <rect>
        8 29 1 8</rect></_>
    <_>
      <rect>
        8 56 4 4</rect></_>
    <_>
      <rect>
        9 0 6 1</rect></_>
    <_>
      <rect>
        9 1 4 10</rect></_>
    <_>
      <rect>
        9 2 3 9</rect></_>
    <_>
      <rect>
        11 45 6 11</rect></_>
    <_>
      <rect>
        11 59 3 5</rect></_>
    <_>
      <rect>
        11 60 3 3</rect></_>
    <_>
      <rect>
        12 2 4 6</rect></_>
    <_>
      <rect>
        13 34 2 6</rect></_>
    <_>
      <rect>
        15 24 5 18</rect></_>
    <_>
      <rect>
        15 50 2 4</rect></_>
    <_>
      <rect>
        16 4 4 6</rect></_>
    <_>
      <rect>
        16 57 3 7</rect></_>
    <_>
      <rect>
        16 69 3 3</rect></_>
    <_>
      <rect>
        18 1 4 16</rect></_>
    <_>
      <rect>
        19 4 3 18</rect></_>
    <_>
      <rect>
        20 13 2 2</rect></_>
    <_>
      <rect>
        22 20 2 4</rect></_>
    <_>
      <rect>
        23 16 2 5</rect></_>
    <_>
      <rect>
        24 48 2 10</rect></_>
    <_>
      <rect>
        24 62 2 5</rect></_>
    <_>
      <rect>
        25 34 1 2</rect></_>
    <_>
      <rect>
        26 56 1 1</rect></_>
    <_>
      <rect>
        27 48 1 1</rect></_>
    <_>
      <rect>
        27 51 1 1</rect></_>
    <_>
      <rect>
        27 53 1 1</rect></_>
    <_>
      <rect>
        27 54 1 1</rect></_></features></cascade>
</opencv_storage>
