<?xml version="1.0"?>
<opencv_storage>
<cascade>
  <stageType>BOOST</stageType>
  <featureType>HAAR</featureType>
  <height>80</height>
  <width>30</width>
  <stageParams>
    <boostType>GAB</boostType>
    <minHitRate>9.9500000476837158e-001</minHitRate>
    <maxFalseAlarm>4.0000000596046448e-001</maxFalseAlarm>
    <weightTrimRate>9.4999999999999996e-001</weightTrimRate>
    <maxDepth>1</maxDepth>
    <maxWeakCount>100</maxWeakCount></stageParams>
  <featureParams>
    <maxCatCount>0</maxCatCount>
    <featSize>1</featSize>
    <mode>ALL</mode></featureParams>
  <stageNum>13</stageNum>
  <stages>
    <!-- stage 0 -->
    <_>
      <maxWeakCount>3</maxWeakCount>
      <stageThreshold>-1.0003231763839722e+000</stageThreshold>
      <weakClassifiers>
        <_>
          <internalNodes>
            0 -1 0 -1.9132730364799500e-001</internalNodes>
          <leafValues>
            1. -9.7452229261398315e-001</leafValues></_>
        <_>
          <internalNodes>
            0 -1 7 -6.6273421049118042e-002</internalNodes>
          <leafValues>
            9.3434369564056396e-001 -9.4587135314941406e-001</leafValues></_>
        <_>
          <internalNodes>
            0 -1 8 -6.9761663675308228e-002</internalNodes>
          <leafValues>
            9.2007046937942505e-001 -8.9413374662399292e-001</leafValues></_></weakClassifiers></_>
    <!-- stage 1 -->
    <_>
      <maxWeakCount>3</maxWeakCount>
      <stageThreshold>-1.0864543914794922e+000</stageThreshold>
      <weakClassifiers>
        <_>
          <internalNodes>
            0 -1 17 -1.9249191880226135e-001</internalNodes>
          <leafValues>
            9.0697675943374634e-001 -9.2405062913894653e-001</leafValues></_>
        <_>
          <internalNodes>
            0 -1 20 -1.1446862667798996e-001</internalNodes>
          <leafValues>
            6.2867301702499390e-001 -8.0021482706069946e-001</leafValues></_>
        <_>
          <internalNodes>
            0 -1 57 -1.5548532828688622e-003</internalNodes>
          <leafValues>
            7.2591120004653931e-001 -7.9107677936553955e-001</leafValues></_></weakClassifiers></_>
    <!-- stage 2 -->
    <_>
      <maxWeakCount>6</maxWeakCount>
      <stageThreshold>-1.4145046472549438e+000</stageThreshold>
      <weakClassifiers>
        <_>
          <internalNodes>
            0 -1 18 -3.2457599043846130e-001</internalNodes>
          <leafValues>
            6.4957267045974731e-001 -7.6524388790130615e-001</leafValues></_>
        <_>
          <internalNodes>
            0 -1 32 1.5740280970931053e-002</internalNodes>
          <leafValues>
            -5.7360553741455078e-001 6.5366083383560181e-001</leafValues></_>
        <_>
          <internalNodes>
            0 -1 52 -1.1565332533791661e-003</internalNodes>
          <leafValues>
            5.7619941234588623e-001 -6.3624751567840576e-001</leafValues></_>
        <_>
          <internalNodes>
            0 -1 9 -5.0289567559957504e-002</internalNodes>
          <leafValues>
            5.4508972167968750e-001 -4.8188203573226929e-001</leafValues></_>
        <_>
          <internalNodes>
            0 -1 69 1.3596846256405115e-003</internalNodes>
          <leafValues>
            -4.3971708416938782e-001 5.6273460388183594e-001</leafValues></_>
        <_>
          <internalNodes>
            0 -1 36 -1.3949694111943245e-003</internalNodes>
          <leafValues>
            4.7973972558975220e-001 -5.0080901384353638e-001</leafValues></_></weakClassifiers></_>
    <!-- stage 3 -->
    <_>
      <maxWeakCount>6</maxWeakCount>
      <stageThreshold>-9.6205848455429077e-001</stageThreshold>
      <weakClassifiers>
        <_>
          <internalNodes>
            0 -1 34 -3.0329534783959389e-002</internalNodes>
          <leafValues>
            4.9090909957885742e-001 -6.8358206748962402e-001</leafValues></_>
        <_>
          <internalNodes>
            0 -1 3 -3.3180825412273407e-002</internalNodes>
          <leafValues>
            3.5700547695159912e-001 -6.7346054315567017e-001</leafValues></_>
        <_>
          <internalNodes>
            0 -1 76 2.8788052499294281e-002</internalNodes>
          <leafValues>
            -7.9507166147232056e-001 2.8159958124160767e-001</leafValues></_>
        <_>
          <internalNodes>
            0 -1 50 -4.4931708835065365e-003</internalNodes>
          <leafValues>
            5.2417922019958496e-001 -5.0282275676727295e-001</leafValues></_>
        <_>
          <internalNodes>
            0 -1 12 -5.8704602997750044e-004</internalNodes>
          <leafValues>
            3.3102080225944519e-001 -6.3577198982238770e-001</leafValues></_>
        <_>
          <internalNodes>
            0 -1 29 -1.8500335514545441e-002</internalNodes>
          <leafValues>
            3.3485585451126099e-001 -7.3343276977539063e-001</leafValues></_></weakClassifiers></_>
    <!-- stage 4 -->
    <_>
      <maxWeakCount>8</maxWeakCount>
      <stageThreshold>-9.5751404762268066e-001</stageThreshold>
      <weakClassifiers>
        <_>
          <internalNodes>
            0 -1 37 -4.9296831712126732e-003</internalNodes>
          <leafValues>
            3.0645161867141724e-001 -6.6355139017105103e-001</leafValues></_>
        <_>
          <internalNodes>
            0 -1 31 1.7183436080813408e-002</internalNodes>
          <leafValues>
            -5.1763170957565308e-001 5.4460918903350830e-001</leafValues></_>
        <_>
          <internalNodes>
            0 -1 24 -2.7846056222915649e-001</internalNodes>
          <leafValues>
            4.8208212852478027e-001 -5.1931369304656982e-001</leafValues></_>
        <_>
          <internalNodes>
            0 -1 84 1.6049204859882593e-003</internalNodes>
          <leafValues>
            -3.9405345916748047e-001 4.5031118392944336e-001</leafValues></_>
        <_>
          <internalNodes>
            0 -1 88 -1.2639806373044848e-003</internalNodes>
          <leafValues>
            -7.5790703296661377e-001 2.8227460384368896e-001</leafValues></_>
        <_>
          <internalNodes>
            0 -1 63 -3.5380825283937156e-004</internalNodes>
          <leafValues>
            2.7082377672195435e-001 -6.4436727762222290e-001</leafValues></_>
        <_>
          <internalNodes>
            0 -1 2 -2.9698867350816727e-002</internalNodes>
          <leafValues>
            3.2734161615371704e-001 -6.3091498613357544e-001</leafValues></_>
        <_>
          <internalNodes>
            0 -1 77 1.9776546396315098e-003</internalNodes>
          <leafValues>
            -5.2311068773269653e-001 3.7048816680908203e-001</leafValues></_></weakClassifiers></_>
    <!-- stage 5 -->
    <_>
      <maxWeakCount>8</maxWeakCount>
      <stageThreshold>-1.0323917865753174e+000</stageThreshold>
      <weakClassifiers>
        <_>
          <internalNodes>
            0 -1 35 -1.7450649291276932e-002</internalNodes>
          <leafValues>
            5.4117649793624878e-001 -6.1388885974884033e-001</leafValues></_>
        <_>
          <internalNodes>
            0 -1 67 2.3924173787236214e-002</internalNodes>
          <leafValues>
            -7.9077559709548950e-001 2.1251082420349121e-001</leafValues></_>
        <_>
          <internalNodes>
            0 -1 4 -7.6459455303847790e-003</internalNodes>
          <leafValues>
            3.8352754712104797e-001 -5.0319194793701172e-001</leafValues></_>
        <_>
          <internalNodes>
            0 -1 90 -2.6753055863082409e-005</internalNodes>
          <leafValues>
            3.2360839843750000e-001 -6.8830317258834839e-001</leafValues></_>
        <_>
          <internalNodes>
            0 -1 42 -4.1077900677919388e-003</internalNodes>
          <leafValues>
            -6.5003830194473267e-001 2.4144868552684784e-001</leafValues></_>
        <_>
          <internalNodes>
            0 -1 55 7.3021755088120699e-004</internalNodes>
          <leafValues>
            2.1172870695590973e-001 -7.7085506916046143e-001</leafValues></_>
        <_>
          <internalNodes>
            0 -1 40 -1.3994871405884624e-003</internalNodes>
          <leafValues>
            3.6004462838172913e-001 -4.8703119158744812e-001</leafValues></_>
        <_>
          <internalNodes>
            0 -1 49 -6.8922610953450203e-003</internalNodes>
          <leafValues>
            8.4110206365585327e-001 -2.5274059176445007e-001</leafValues></_></weakClassifiers></_>
    <!-- stage 6 -->
    <_>
      <maxWeakCount>8</maxWeakCount>
      <stageThreshold>-1.0347534418106079e+000</stageThreshold>
      <weakClassifiers>
        <_>
          <internalNodes>
            0 -1 80 -1.7171334475278854e-002</internalNodes>
          <leafValues>
            3.4782609343528748e-001 -5.8640223741531372e-001</leafValues></_>
        <_>
          <internalNodes>
            0 -1 21 -4.0345519781112671e-002</internalNodes>
          <leafValues>
            2.4072217941284180e-001 -5.7101976871490479e-001</leafValues></_>
        <_>
          <internalNodes>
            0 -1 45 -1.1943946592509747e-003</internalNodes>
          <leafValues>
            2.9875418543815613e-001 -5.5696129798889160e-001</leafValues></_>
        <_>
          <internalNodes>
            0 -1 6 1.0421466082334518e-002</internalNodes>
          <leafValues>
            -3.7053117156028748e-001 4.1638654470443726e-001</leafValues></_>
        <_>
          <internalNodes>
            0 -1 25 1.1352404253557324e-003</internalNodes>
          <leafValues>
            1.2077921628952026e-001 -8.6845636367797852e-001</leafValues></_>
        <_>
          <internalNodes>
            0 -1 86 1.1073906207457185e-003</internalNodes>
          <leafValues>
            1.6767954826354980e-001 -9.2704248428344727e-001</leafValues></_>
        <_>
          <internalNodes>
            0 -1 65 -9.7725162049755454e-005</internalNodes>
          <leafValues>
            6.7099916934967041e-001 -2.7119153738021851e-001</leafValues></_>
        <_>
          <internalNodes>
            0 -1 43 -1.5182518400251865e-003</internalNodes>
          <leafValues>
            3.7949618697166443e-001 -4.3564444780349731e-001</leafValues></_></weakClassifiers></_>
    <!-- stage 7 -->
    <_>
      <maxWeakCount>9</maxWeakCount>
      <stageThreshold>-9.3784564733505249e-001</stageThreshold>
      <weakClassifiers>
        <_>
          <internalNodes>
            0 -1 85 -8.2346824929118156e-003</internalNodes>
          <leafValues>
            3.2467532157897949e-001 -6.4491653442382813e-001</leafValues></_>
        <_>
          <internalNodes>
            0 -1 30 -2.3309908807277679e-002</internalNodes>
          <leafValues>
            5.9740060567855835e-001 -3.0791750550270081e-001</leafValues></_>
        <_>
          <internalNodes>
            0 -1 11 -2.7159604360349476e-004</internalNodes>
          <leafValues>
            2.4286027252674103e-001 -6.3833129405975342e-001</leafValues></_>
        <_>
          <internalNodes>
            0 -1 44 1.1578073725104332e-002</internalNodes>
          <leafValues>
            -2.2692051529884338e-001 7.2798448801040649e-001</leafValues></_>
        <_>
          <internalNodes>
            0 -1 73 2.6222292333841324e-002</internalNodes>
          <leafValues>
            -5.0387924909591675e-001 3.9932930469512939e-001</leafValues></_>
        <_>
          <internalNodes>
            0 -1 28 -7.0306463167071342e-003</internalNodes>
          <leafValues>
            4.0231841802597046e-001 -4.0205597877502441e-001</leafValues></_>
        <_>
          <internalNodes>
            0 -1 53 -4.3150165583938360e-004</internalNodes>
          <leafValues>
            4.0603241324424744e-001 -4.4631972908973694e-001</leafValues></_>
        <_>
          <internalNodes>
            0 -1 10 8.6520295590162277e-003</internalNodes>
          <leafValues>
            2.2692394256591797e-001 -6.9154810905456543e-001</leafValues></_>
        <_>
          <internalNodes>
            0 -1 26 -6.0229178052395582e-004</internalNodes>
          <leafValues>
            3.3019745349884033e-001 -5.1708340644836426e-001</leafValues></_></weakClassifiers></_>
    <!-- stage 8 -->
    <_>
      <maxWeakCount>8</maxWeakCount>
      <stageThreshold>-1.2632986307144165e+000</stageThreshold>
      <weakClassifiers>
        <_>
          <internalNodes>
            0 -1 78 -1.0806927457451820e-002</internalNodes>
          <leafValues>
            4.9230769276618958e-001 -5.4473686218261719e-001</leafValues></_>
        <_>
          <internalNodes>
            0 -1 23 3.4279443323612213e-002</internalNodes>
          <leafValues>
            1.6469700634479523e-001 -7.8240859508514404e-001</leafValues></_>
        <_>
          <internalNodes>
            0 -1 47 7.7319086994975805e-004</internalNodes>
          <leafValues>
            2.1337562799453735e-001 -6.7474889755249023e-001</leafValues></_>
        <_>
          <internalNodes>
            0 -1 27 -4.9058839678764343e-002</internalNodes>
          <leafValues>
            2.7550071477890015e-001 -6.2508565187454224e-001</leafValues></_>
        <_>
          <internalNodes>
            0 -1 64 1.0265057208016515e-003</internalNodes>
          <leafValues>
            -3.8079562783241272e-001 4.3978387117385864e-001</leafValues></_>
        <_>
          <internalNodes>
            0 -1 71 -7.3388882447034121e-004</internalNodes>
          <leafValues>
            4.2454499006271362e-001 -4.2890444397926331e-001</leafValues></_>
        <_>
          <internalNodes>
            0 -1 81 4.3564834631979465e-003</internalNodes>
          <leafValues>
            -3.2635310292243958e-001 4.8195120692253113e-001</leafValues></_>
        <_>
          <internalNodes>
            0 -1 87 3.1203494872897863e-003</internalNodes>
          <leafValues>
            -2.6165959239006042e-001 6.6450446844100952e-001</leafValues></_></weakClassifiers></_>
    <!-- stage 9 -->
    <_>
      <maxWeakCount>9</maxWeakCount>
      <stageThreshold>-1.1192729473114014e+000</stageThreshold>
      <weakClassifiers>
        <_>
          <internalNodes>
            0 -1 48 -3.0088983476161957e-003</internalNodes>
          <leafValues>
            8.6885243654251099e-001 -4.8612785339355469e-001</leafValues></_>
        <_>
          <internalNodes>
            0 -1 5 -5.7905004359781742e-003</internalNodes>
          <leafValues>
            2.0652142167091370e-001 -6.5357148647308350e-001</leafValues></_>
        <_>
          <internalNodes>
            0 -1 70 4.7057867050170898e-003</internalNodes>
          <leafValues>
            -2.5756895542144775e-001 6.3507199287414551e-001</leafValues></_>
        <_>
          <internalNodes>
            0 -1 89 1.1060514952987432e-003</internalNodes>
          <leafValues>
            2.2331939637660980e-001 -7.2360932826995850e-001</leafValues></_>
        <_>
          <internalNodes>
            0 -1 33 -2.6603687554597855e-002</internalNodes>
          <leafValues>
            5.5009746551513672e-001 -2.8145086765289307e-001</leafValues></_>
        <_>
          <internalNodes>
            0 -1 51 -1.4499600511044264e-003</internalNodes>
          <leafValues>
            3.2731807231903076e-001 -5.3527438640594482e-001</leafValues></_>
        <_>
          <internalNodes>
            0 -1 58 -1.7587652429938316e-002</internalNodes>
          <leafValues>
            -8.3509534597396851e-001 1.9506248831748962e-001</leafValues></_>
        <_>
          <internalNodes>
            0 -1 59 3.4147757105529308e-004</internalNodes>
          <leafValues>
            2.4248397350311279e-001 -5.7312196493148804e-001</leafValues></_>
        <_>
          <internalNodes>
            0 -1 14 1.7943552229553461e-003</internalNodes>
          <leafValues>
            -3.7917053699493408e-001 4.7220012545585632e-001</leafValues></_></weakClassifiers></_>
    <!-- stage 10 -->
    <_>
      <maxWeakCount>8</maxWeakCount>
      <stageThreshold>-9.3168586492538452e-001</stageThreshold>
      <weakClassifiers>
        <_>
          <internalNodes>
            0 -1 68 -7.1298247203230858e-003</internalNodes>
          <leafValues>
            4.1496598720550537e-001 -5.5316287279129028e-001</leafValues></_>
        <_>
          <internalNodes>
            0 -1 13 -1.7434146255254745e-002</internalNodes>
          <leafValues>
            -9.4492226839065552e-001 1.4208820462226868e-001</leafValues></_>
        <_>
          <internalNodes>
            0 -1 54 -1.9465878605842590e-002</internalNodes>
          <leafValues>
            -8.4541207551956177e-001 1.7753252387046814e-001</leafValues></_>
        <_>
          <internalNodes>
            0 -1 46 2.3871604353189468e-002</internalNodes>
          <leafValues>
            -6.0242712497711182e-001 2.6800435781478882e-001</leafValues></_>
        <_>
          <internalNodes>
            0 -1 38 -7.2047039866447449e-002</internalNodes>
          <leafValues>
            7.8218346834182739e-001 -2.3165376484394073e-001</leafValues></_>
        <_>
          <internalNodes>
            0 -1 83 -9.7876624204218388e-004</internalNodes>
          <leafValues>
            -7.9968136548995972e-001 2.5858488678932190e-001</leafValues></_>
        <_>
          <internalNodes>
            0 -1 75 -1.9617059733718634e-003</internalNodes>
          <leafValues>
            5.4963696002960205e-001 -3.4649688005447388e-001</leafValues></_>
        <_>
          <internalNodes>
            0 -1 15 -2.9912567697465420e-004</internalNodes>
          <leafValues>
            4.1168394684791565e-001 -4.2194998264312744e-001</leafValues></_></weakClassifiers></_>
    <!-- stage 11 -->
    <_>
      <maxWeakCount>8</maxWeakCount>
      <stageThreshold>-9.2896157503128052e-001</stageThreshold>
      <weakClassifiers>
        <_>
          <internalNodes>
            0 -1 1 -1.0862044990062714e-002</internalNodes>
          <leafValues>
            4.0606060624122620e-001 -5.7517242431640625e-001</leafValues></_>
        <_>
          <internalNodes>
            0 -1 22 7.3564151534810662e-004</internalNodes>
          <leafValues>
            1.6999232769012451e-001 -7.5438666343688965e-001</leafValues></_>
        <_>
          <internalNodes>
            0 -1 74 1.3562941458076239e-003</internalNodes>
          <leafValues>
            -3.8010802865028381e-001 4.8784428834915161e-001</leafValues></_>
        <_>
          <internalNodes>
            0 -1 16 -1.7287009954452515e-001</internalNodes>
          <leafValues>
            4.2829579114913940e-001 -3.6193466186523438e-001</leafValues></_>
        <_>
          <internalNodes>
            0 -1 72 -4.9861212028190494e-004</internalNodes>
          <leafValues>
            -4.8746976256370544e-001 3.7673178315162659e-001</leafValues></_>
        <_>
          <internalNodes>
            0 -1 62 -3.3268341794610023e-003</internalNodes>
          <leafValues>
            -7.0476764440536499e-001 2.3050262033939362e-001</leafValues></_>
        <_>
          <internalNodes>
            0 -1 56 -2.5317291729152203e-003</internalNodes>
          <leafValues>
            -8.9092165231704712e-001 1.6247576475143433e-001</leafValues></_>
        <_>
          <internalNodes>
            0 -1 19 5.2032403647899628e-002</internalNodes>
          <leafValues>
            -2.8233474493026733e-001 6.3234621286392212e-001</leafValues></_></weakClassifiers></_>
    <!-- stage 12 -->
    <_>
      <maxWeakCount>8</maxWeakCount>
      <stageThreshold>-1.1220047473907471e+000</stageThreshold>
      <weakClassifiers>
        <_>
          <internalNodes>
            0 -1 60 -1.3334425166249275e-002</internalNodes>
          <leafValues>
            4.0314134955406189e-001 -6.1087268590927124e-001</leafValues></_>
        <_>
          <internalNodes>
            0 -1 66 1.5703690052032471e-001</internalNodes>
          <leafValues>
            -5.3188323974609375e-001 3.1441104412078857e-001</leafValues></_>
        <_>
          <internalNodes>
            0 -1 79 -3.4790846984833479e-004</internalNodes>
          <leafValues>
            -6.4142191410064697e-001 2.3933374881744385e-001</leafValues></_>
        <_>
          <internalNodes>
            0 -1 91 6.4380047842860222e-004</internalNodes>
          <leafValues>
            2.4819266796112061e-001 -6.9025868177413940e-001</leafValues></_>
        <_>
          <internalNodes>
            0 -1 41 3.7822476588189602e-003</internalNodes>
          <leafValues>
            -3.3353474736213684e-001 5.9702122211456299e-001</leafValues></_>
        <_>
          <internalNodes>
            0 -1 82 1.6495905816555023e-002</internalNodes>
          <leafValues>
            -3.3983039855957031e-001 4.6392109990119934e-001</leafValues></_>
        <_>
          <internalNodes>
            0 -1 61 8.8900851551443338e-004</internalNodes>
          <leafValues>
            -3.4064322710037231e-001 5.2700674533843994e-001</leafValues></_>
        <_>
          <internalNodes>
            0 -1 39 -3.9730505086481571e-003</internalNodes>
          <leafValues>
            8.5652852058410645e-001 -2.2205707430839539e-001</leafValues></_></weakClassifiers></_></stages>
  <features>
    <_>
      <rects>
        <_>
          0 0 30 60 -1.</_>
        <_>
          10 0 10 60 3.</_></rects>
      <tilted>0</tilted></_>
    <_>
      <rects>
        <_>
          0 12 6 24 -1.</_>
        <_>
          0 12 3 12 2.</_>
        <_>
          3 24 3 12 2.</_></rects>
      <tilted>0</tilted></_>
    <_>
      <rects>
        <_>
          0 13 20 30 -1.</_>
        <_>
          5 13 10 30 2.</_></rects>
      <tilted>0</tilted></_>
    <_>
      <rects>
        <_>
          0 18 10 36 -1.</_>
        <_>
          5 18 5 36 2.</_></rects>
      <tilted>0</tilted></_>
    <_>
      <rects>
        <_>
          0 22 6 21 -1.</_>
        <_>
          3 22 3 21 2.</_></rects>
      <tilted>0</tilted></_>
    <_>
      <rects>
        <_>
          0 23 6 56 -1.</_>
        <_>
          3 23 3 56 2.</_></rects>
      <tilted>0</tilted></_>
    <_>
      <rects>
        <_>
          0 25 8 36 -1.</_>
        <_>
          0 25 4 18 2.</_>
        <_>
          4 43 4 18 2.</_></rects>
      <tilted>0</tilted></_>
    <_>
      <rects>
        <_>
          0 36 30 23 -1.</_>
        <_>
          10 36 10 23 3.</_></rects>
      <tilted>0</tilted></_>
    <_>
      <rects>
        <_>
          0 40 27 31 -1.</_>
        <_>
          9 40 9 31 3.</_></rects>
      <tilted>0</tilted></_>
    <_>
      <rects>
        <_>
          0 45 30 6 -1.</_>
        <_>
          10 45 10 6 3.</_></rects>
      <tilted>0</tilted></_>
    <_>
      <rects>
        <_>
          0 50 3 30 -1.</_>
        <_>
          1 60 1 10 9.</_></rects>
      <tilted>0</tilted></_>
    <_>
      <rects>
        <_>
          0 60 1 20 -1.</_>
        <_>
          0 70 1 10 2.</_></rects>
      <tilted>0</tilted></_>
    <_>
      <rects>
        <_>
          0 63 2 16 -1.</_>
        <_>
          0 71 2 8 2.</_></rects>
      <tilted>0</tilted></_>
    <_>
      <rects>
        <_>
          0 64 30 16 -1.</_>
        <_>
          0 68 30 8 2.</_></rects>
      <tilted>0</tilted></_>
    <_>
      <rects>
        <_>
          0 69 18 3 -1.</_>
        <_>
          6 69 6 3 3.</_></rects>
      <tilted>0</tilted></_>
    <_>
      <rects>
        <_>
          0 74 7 4 -1.</_>
        <_>
          0 76 7 2 2.</_></rects>
      <tilted>0</tilted></_>
    <_>
      <rects>
        <_>
          1 0 14 64 -1.</_>
        <_>
          8 0 7 64 2.</_></rects>
      <tilted>0</tilted></_>
    <_>
      <rects>
        <_>
          1 2 28 62 -1.</_>
        <_>
          8 2 14 62 2.</_></rects>
      <tilted>0</tilted></_>
    <_>
      <rects>
        <_>
          1 2 28 70 -1.</_>
        <_>
          8 2 14 70 2.</_></rects>
      <tilted>0</tilted></_>
    <_>
      <rects>
        <_>
          1 22 7 36 -1.</_>
        <_>
          1 40 7 18 2.</_></rects>
      <tilted>0</tilted></_>
    <_>
      <rects>
        <_>
          1 26 28 36 -1.</_>
        <_>
          8 26 14 36 2.</_></rects>
      <tilted>0</tilted></_>
    <_>
      <rects>
        <_>
          1 41 14 16 -1.</_>
        <_>
          8 41 7 16 2.</_></rects>
      <tilted>0</tilted></_>
    <_>
      <rects>
        <_>
          1 46 2 34 -1.</_>
        <_>
          2 46 1 34 2.</_></rects>
      <tilted>0</tilted></_>
    <_>
      <rects>
        <_>
          1 56 27 24 -1.</_>
        <_>
          1 64 27 8 3.</_></rects>
      <tilted>0</tilted></_>
    <_>
      <rects>
        <_>
          2 9 28 63 -1.</_>
        <_>
          9 9 14 63 2.</_></rects>
      <tilted>0</tilted></_>
    <_>
      <rects>
        <_>
          2 54 4 13 -1.</_>
        <_>
          4 54 2 13 2.</_></rects>
      <tilted>0</tilted></_>
    <_>
      <rects>
        <_>
          3 70 3 10 -1.</_>
        <_>
          3 75 3 5 2.</_></rects>
      <tilted>0</tilted></_>
    <_>
      <rects>
        <_>
          4 7 12 51 -1.</_>
        <_>
          8 24 4 17 9.</_></rects>
      <tilted>0</tilted></_>
    <_>
      <rects>
        <_>
          4 31 12 20 -1.</_>
        <_>
          4 31 6 10 2.</_>
        <_>
          10 41 6 10 2.</_></rects>
      <tilted>0</tilted></_>
    <_>
      <rects>
        <_>
          4 45 21 6 -1.</_>
        <_>
          11 47 7 2 9.</_></rects>
      <tilted>0</tilted></_>
    <_>
      <rects>
        <_>
          5 6 21 3 -1.</_>
        <_>
          12 7 7 1 9.</_></rects>
      <tilted>0</tilted></_>
    <_>
      <rects>
        <_>
          5 16 2 48 -1.</_>
        <_>
          5 40 2 24 2.</_></rects>
      <tilted>0</tilted></_>
    <_>
      <rects>
        <_>
          5 19 2 44 -1.</_>
        <_>
          5 41 2 22 2.</_></rects>
      <tilted>0</tilted></_>
    <_>
      <rects>
        <_>
          5 19 8 46 -1.</_>
        <_>
          5 19 4 23 2.</_>
        <_>
          9 42 4 23 2.</_></rects>
      <tilted>0</tilted></_>
    <_>
      <rects>
        <_>
          6 0 3 60 -1.</_>
        <_>
          6 15 3 30 2.</_></rects>
      <tilted>0</tilted></_>
    <_>
      <rects>
        <_>
          6 2 18 3 -1.</_>
        <_>
          12 2 6 3 3.</_></rects>
      <tilted>0</tilted></_>
    <_>
      <rects>
        <_>
          6 13 12 3 -1.</_>
        <_>
          10 13 4 3 3.</_></rects>
      <tilted>0</tilted></_>
    <_>
      <rects>
        <_>
          7 0 12 4 -1.</_>
        <_>
          7 2 12 2 2.</_></rects>
      <tilted>0</tilted></_>
    <_>
      <rects>
        <_>
          7 1 18 9 -1.</_>
        <_>
          13 4 6 3 9.</_></rects>
      <tilted>0</tilted></_>
    <_>
      <rects>
        <_>
          7 7 6 10 -1.</_>
        <_>
          7 7 3 5 2.</_>
        <_>
          10 12 3 5 2.</_></rects>
      <tilted>0</tilted></_>
    <_>
      <rects>
        <_>
          7 10 9 8 -1.</_>
        <_>
          7 14 9 4 2.</_></rects>
      <tilted>0</tilted></_>
    <_>
      <rects>
        <_>
          7 54 6 18 -1.</_>
        <_>
          7 54 3 9 2.</_>
        <_>
          10 63 3 9 2.</_></rects>
      <tilted>0</tilted></_>
    <_>
      <rects>
        <_>
          8 2 8 76 -1.</_>
        <_>
          8 40 8 38 2.</_></rects>
      <tilted>0</tilted></_>
    <_>
      <rects>
        <_>
          8 5 12 2 -1.</_>
        <_>
          12 5 4 2 3.</_></rects>
      <tilted>0</tilted></_>
    <_>
      <rects>
        <_>
          8 62 15 11 -1.</_>
        <_>
          13 62 5 11 3.</_></rects>
      <tilted>0</tilted></_>
    <_>
      <rects>
        <_>
          9 0 9 8 -1.</_>
        <_>
          9 2 9 4 2.</_></rects>
      <tilted>0</tilted></_>
    <_>
      <rects>
        <_>
          9 24 10 56 -1.</_>
        <_>
          9 52 10 28 2.</_></rects>
      <tilted>0</tilted></_>
    <_>
      <rects>
        <_>
          9 36 9 15 -1.</_>
        <_>
          12 41 3 5 9.</_></rects>
      <tilted>0</tilted></_>
    <_>
      <rects>
        <_>
          9 46 4 12 -1.</_>
        <_>
          9 46 2 6 2.</_>
        <_>
          11 52 2 6 2.</_></rects>
      <tilted>0</tilted></_>
    <_>
      <rects>
        <_>
          9 53 6 20 -1.</_>
        <_>
          9 53 3 10 2.</_>
        <_>
          12 63 3 10 2.</_></rects>
      <tilted>0</tilted></_>
    <_>
      <rects>
        <_>
          10 0 9 10 -1.</_>
        <_>
          13 0 3 10 3.</_></rects>
      <tilted>0</tilted></_>
    <_>
      <rects>
        <_>
          10 0 6 8 -1.</_>
        <_>
          10 4 6 4 2.</_></rects>
      <tilted>0</tilted></_>
    <_>
      <rects>
        <_>
          10 0 8 4 -1.</_>
        <_>
          10 2 8 2 2.</_></rects>
      <tilted>0</tilted></_>
    <_>
      <rects>
        <_>
          10 12 11 4 -1.</_>
        <_>
          10 14 11 2 2.</_></rects>
      <tilted>0</tilted></_>
    <_>
      <rects>
        <_>
          10 19 9 27 -1.</_>
        <_>
          10 28 9 9 3.</_></rects>
      <tilted>0</tilted></_>
    <_>
      <rects>
        <_>
          10 61 12 4 -1.</_>
        <_>
          10 62 12 2 2.</_></rects>
      <tilted>0</tilted></_>
    <_>
      <rects>
        <_>
          10 62 14 6 -1.</_>
        <_>
          10 64 14 2 3.</_></rects>
      <tilted>0</tilted></_>
    <_>
      <rects>
        <_>
          11 0 6 19 -1.</_>
        <_>
          13 0 2 19 3.</_></rects>
      <tilted>0</tilted></_>
    <_>
      <rects>
        <_>
          11 12 6 24 -1.</_>
        <_>
          13 20 2 8 9.</_></rects>
      <tilted>0</tilted></_>
    <_>
      <rects>
        <_>
          11 20 7 6 -1.</_>
        <_>
          11 23 7 3 2.</_></rects>
      <tilted>0</tilted></_>
    <_>
      <rects>
        <_>
          12 6 12 24 -1.</_>
        <_>
          12 6 6 12 2.</_>
        <_>
          18 18 6 12 2.</_></rects>
      <tilted>0</tilted></_>
    <_>
      <rects>
        <_>
          12 9 6 5 -1.</_>
        <_>
          15 9 3 5 2.</_></rects>
      <tilted>0</tilted></_>
    <_>
      <rects>
        <_>
          12 15 4 16 -1.</_>
        <_>
          12 23 4 8 2.</_></rects>
      <tilted>0</tilted></_>
    <_>
      <rects>
        <_>
          13 1 7 8 -1.</_>
        <_>
          13 3 7 4 2.</_></rects>
      <tilted>0</tilted></_>
    <_>
      <rects>
        <_>
          13 6 5 6 -1.</_>
        <_>
          13 9 5 3 2.</_></rects>
      <tilted>0</tilted></_>
    <_>
      <rects>
        <_>
          13 74 2 2 -1.</_>
        <_>
          13 74 1 1 2.</_>
        <_>
          14 75 1 1 2.</_></rects>
      <tilted>0</tilted></_>
    <_>
      <rects>
        <_>
          14 15 16 61 -1.</_>
        <_>
          22 15 8 61 2.</_></rects>
      <tilted>0</tilted></_>
    <_>
      <rects>
        <_>
          14 42 16 10 -1.</_>
        <_>
          22 42 8 10 2.</_></rects>
      <tilted>0</tilted></_>
    <_>
      <rects>
        <_>
          14 58 9 5 -1.</_>
        <_>
          17 58 3 5 3.</_></rects>
      <tilted>0</tilted></_>
    <_>
      <rects>
        <_>
          14 59 6 14 -1.</_>
        <_>
          14 59 3 7 2.</_>
        <_>
          17 66 3 7 2.</_></rects>
      <tilted>0</tilted></_>
    <_>
      <rects>
        <_>
          14 62 8 18 -1.</_>
        <_>
          14 62 4 9 2.</_>
        <_>
          18 71 4 9 2.</_></rects>
      <tilted>0</tilted></_>
    <_>
      <rects>
        <_>
          14 72 16 6 -1.</_>
        <_>
          14 72 8 3 2.</_>
        <_>
          22 75 8 3 2.</_></rects>
      <tilted>0</tilted></_>
    <_>
      <rects>
        <_>
          15 15 2 8 -1.</_>
        <_>
          15 15 2 4 2.</_></rects>
      <tilted>1</tilted></_>
    <_>
      <rects>
        <_>
          17 38 8 32 -1.</_>
        <_>
          21 38 4 32 2.</_></rects>
      <tilted>0</tilted></_>
    <_>
      <rects>
        <_>
          17 73 8 5 -1.</_>
        <_>
          21 73 4 5 2.</_></rects>
      <tilted>0</tilted></_>
    <_>
      <rects>
        <_>
          18 26 12 3 -1.</_>
        <_>
          21 26 6 3 2.</_></rects>
      <tilted>0</tilted></_>
    <_>
      <rects>
        <_>
          18 26 12 54 -1.</_>
        <_>
          24 26 6 54 2.</_></rects>
      <tilted>0</tilted></_>
    <_>
      <rects>
        <_>
          18 56 3 22 -1.</_>
        <_>
          18 67 3 11 2.</_></rects>
      <tilted>0</tilted></_>
    <_>
      <rects>
        <_>
          20 8 10 8 -1.</_>
        <_>
          18 10 10 4 2.</_></rects>
      <tilted>1</tilted></_>
    <_>
      <rects>
        <_>
          20 40 2 4 -1.</_>
        <_>
          20 40 2 2 2.</_></rects>
      <tilted>1</tilted></_>
    <_>
      <rects>
        <_>
          21 5 4 22 -1.</_>
        <_>
          21 16 4 11 2.</_></rects>
      <tilted>0</tilted></_>
    <_>
      <rects>
        <_>
          21 37 6 18 -1.</_>
        <_>
          21 46 6 9 2.</_></rects>
      <tilted>0</tilted></_>
    <_>
      <rects>
        <_>
          22 22 8 18 -1.</_>
        <_>
          26 22 4 18 2.</_></rects>
      <tilted>0</tilted></_>
    <_>
      <rects>
        <_>
          22 73 8 6 -1.</_>
        <_>
          26 73 4 6 2.</_></rects>
      <tilted>0</tilted></_>
    <_>
      <rects>
        <_>
          23 26 1 26 -1.</_>
        <_>
          23 39 1 13 2.</_></rects>
      <tilted>0</tilted></_>
    <_>
      <rects>
        <_>
          24 21 6 54 -1.</_>
        <_>
          24 21 3 27 2.</_>
        <_>
          27 48 3 27 2.</_></rects>
      <tilted>0</tilted></_>
    <_>
      <rects>
        <_>
          24 73 6 1 -1.</_>
        <_>
          24 73 3 1 2.</_></rects>
      <tilted>1</tilted></_>
    <_>
      <rects>
        <_>
          26 11 1 39 -1.</_>
        <_>
          26 24 1 13 3.</_></rects>
      <tilted>0</tilted></_>
    <_>
      <rects>
        <_>
          26 50 4 29 -1.</_>
        <_>
          28 50 2 29 2.</_></rects>
      <tilted>0</tilted></_>
    <_>
      <rects>
        <_>
          26 52 4 7 -1.</_>
        <_>
          28 52 2 7 2.</_></rects>
      <tilted>0</tilted></_>
    <_>
      <rects>
        <_>
          28 66 1 14 -1.</_>
        <_>
          28 73 1 7 2.</_></rects>
      <tilted>0</tilted></_>
    <_>
      <rects>
        <_>
          29 71 1 4 -1.</_>
        <_>
          29 71 1 2 2.</_></rects>
      <tilted>1</tilted></_></features></cascade>
</opencv_storage>
